digraph Tree {
node [shape=box, fontname="helvetica"] ;
edge [fontname="helvetica"] ;
0 [label="stem_percent <= 19.5\nentropy = 0.809\nsamples = 382\nvalue = [287, 95]"] ;
1 [label="total_cost <= 221500.0\nentropy = 0.391\nsamples = 260\nvalue = [240, 20]"] ;
0 -> 1 [labeldistance=2.5, labelangle=45, headlabel="True"] ;
2 [label="rank <= 5.5\nentropy = 0.151\nsamples = 231\nvalue = [226, 5]"] ;
1 -> 2 ;
3 [label="diversity_percent <= 0.198\nentropy = 0.605\nsamples = 27\nvalue = [23, 4]"] ;
2 -> 3 ;
4 [label="entropy = 0.0\nsamples = 15\nvalue = [15, 0]"] ;
3 -> 4 ;
5 [label="diversity_percent <= 0.319\nentropy = 0.918\nsamples = 12\nvalue = [8, 4]"] ;
3 -> 5 ;
6 [label="stem_percent <= 16.0\nentropy = 0.918\nsamples = 6\nvalue = [2, 4]"] ;
5 -> 6 ;
7 [label="entropy = 0.0\nsamples = 4\nvalue = [0, 4]"] ;
6 -> 7 ;
8 [label="entropy = 0.0\nsamples = 2\nvalue = [2, 0]"] ;
6 -> 8 ;
9 [label="entropy = 0.0\nsamples = 6\nvalue = [6, 0]"] ;
5 -> 9 ;
10 [label="diversity_percent <= 0.428\nentropy = 0.045\nsamples = 204\nvalue = [203, 1]"] ;
2 -> 10 ;
11 [label="entropy = 0.0\nsamples = 175\nvalue = [175, 0]"] ;
10 -> 11 ;
12 [label="diversity_percent <= 0.432\nentropy = 0.216\nsamples = 29\nvalue = [28, 1]"] ;
10 -> 12 ;
13 [label="entropy = 0.0\nsamples = 1\nvalue = [0, 1]"] ;
12 -> 13 ;
14 [label="entropy = 0.0\nsamples = 28\nvalue = [28, 0]"] ;
12 -> 14 ;
15 [label="total_cost <= 261390.0\nentropy = 0.999\nsamples = 29\nvalue = [14, 15]"] ;
1 -> 15 ;
16 [label="rank <= 3.0\nentropy = 0.98\nsamples = 24\nvalue = [14, 10]"] ;
15 -> 16 ;
17 [label="entropy = 0.0\nsamples = 3\nvalue = [0, 3]"] ;
16 -> 17 ;
18 [label="total_cost <= 231980.0\nentropy = 0.918\nsamples = 21\nvalue = [14, 7]"] ;
16 -> 18 ;
19 [label="entropy = 0.0\nsamples = 7\nvalue = [7, 0]"] ;
18 -> 19 ;
20 [label="stem_percent <= 12.5\nentropy = 1.0\nsamples = 14\nvalue = [7, 7]"] ;
18 -> 20 ;
21 [label="diversity_percent <= 0.313\nentropy = 0.764\nsamples = 9\nvalue = [7, 2]"] ;
20 -> 21 ;
22 [label="entropy = 0.0\nsamples = 7\nvalue = [7, 0]"] ;
21 -> 22 ;
23 [label="entropy = 0.0\nsamples = 2\nvalue = [0, 2]"] ;
21 -> 23 ;
24 [label="entropy = 0.0\nsamples = 5\nvalue = [0, 5]"] ;
20 -> 24 ;
25 [label="entropy = 0.0\nsamples = 5\nvalue = [0, 5]"] ;
15 -> 25 ;
26 [label="total_cost <= 237194.0\nentropy = 0.962\nsamples = 122\nvalue = [47, 75]"] ;
0 -> 26 [labeldistance=2.5, labelangle=-45, headlabel="False"] ;
27 [label="total_cost <= 206516.0\nentropy = 0.997\nsamples = 83\nvalue = [44, 39]"] ;
26 -> 27 ;
28 [label="rank <= 7.5\nentropy = 0.979\nsamples = 65\nvalue = [27, 38]"] ;
27 -> 28 ;
29 [label="stem_percent <= 56.5\nentropy = 0.863\nsamples = 49\nvalue = [14, 35]"] ;
28 -> 29 ;
30 [label="diversity_percent <= 0.126\nentropy = 0.942\nsamples = 39\nvalue = [14, 25]"] ;
29 -> 30 ;
31 [label="diversity_percent <= 0.087\nentropy = 0.811\nsamples = 8\nvalue = [6, 2]"] ;
30 -> 31 ;
32 [label="entropy = 0.0\nsamples = 2\nvalue = [0, 2]"] ;
31 -> 32 ;
33 [label="entropy = 0.0\nsamples = 6\nvalue = [6, 0]"] ;
31 -> 33 ;
34 [label="diversity_percent <= 0.333\nentropy = 0.824\nsamples = 31\nvalue = [8, 23]"] ;
30 -> 34 ;
35 [label="stem_percent <= 46.5\nentropy = 0.559\nsamples = 23\nvalue = [3, 20]"] ;
34 -> 35 ;
36 [label="entropy = 0.276\nsamples = 21\nvalue = [1, 20]"] ;
35 -> 36 ;
37 [label="entropy = 0.0\nsamples = 2\nvalue = [2, 0]"] ;
35 -> 37 ;
38 [label="rank <= 3.0\nentropy = 0.954\nsamples = 8\nvalue = [5, 3]"] ;
34 -> 38 ;
39 [label="entropy = 0.0\nsamples = 2\nvalue = [0, 2]"] ;
38 -> 39 ;
40 [label="entropy = 0.65\nsamples = 6\nvalue = [5, 1]"] ;
38 -> 40 ;
41 [label="entropy = 0.0\nsamples = 10\nvalue = [0, 10]"] ;
29 -> 41 ;
42 [label="stem_percent <= 37.5\nentropy = 0.696\nsamples = 16\nvalue = [13, 3]"] ;
28 -> 42 ;
43 [label="diversity_percent <= 0.545\nentropy = 0.371\nsamples = 14\nvalue = [13, 1]"] ;
42 -> 43 ;
44 [label="entropy = 0.0\nsamples = 10\nvalue = [10, 0]"] ;
43 -> 44 ;
45 [label="diversity_percent <= 0.77\nentropy = 0.811\nsamples = 4\nvalue = [3, 1]"] ;
43 -> 45 ;
46 [label="entropy = 0.0\nsamples = 1\nvalue = [0, 1]"] ;
45 -> 46 ;
47 [label="entropy = 0.0\nsamples = 3\nvalue = [3, 0]"] ;
45 -> 47 ;
48 [label="entropy = 0.0\nsamples = 2\nvalue = [0, 2]"] ;
42 -> 48 ;
49 [label="diversity_percent <= 0.302\nentropy = 0.31\nsamples = 18\nvalue = [17, 1]"] ;
27 -> 49 ;
50 [label="entropy = 0.0\nsamples = 17\nvalue = [17, 0]"] ;
49 -> 50 ;
51 [label="entropy = 0.0\nsamples = 1\nvalue = [0, 1]"] ;
49 -> 51 ;
52 [label="rank <= 22.5\nentropy = 0.391\nsamples = 39\nvalue = [3, 36]"] ;
26 -> 52 ;
53 [label="stem_percent <= 24.0\nentropy = 0.297\nsamples = 38\nvalue = [2, 36]"] ;
52 -> 53 ;
54 [label="stem_percent <= 22.5\nentropy = 0.684\nsamples = 11\nvalue = [2, 9]"] ;
53 -> 54 ;
55 [label="entropy = 0.0\nsamples = 7\nvalue = [0, 7]"] ;
54 -> 55 ;
56 [label="diversity_percent <= 0.225\nentropy = 1.0\nsamples = 4\nvalue = [2, 2]"] ;
54 -> 56 ;
57 [label="entropy = 0.0\nsamples = 2\nvalue = [0, 2]"] ;
56 -> 57 ;
58 [label="entropy = 0.0\nsamples = 2\nvalue = [2, 0]"] ;
56 -> 58 ;
59 [label="entropy = 0.0\nsamples = 27\nvalue = [0, 27]"] ;
53 -> 59 ;
60 [label="entropy = 0.0\nsamples = 1\nvalue = [1, 0]"] ;
52 -> 60 ;
}