digraph Tree {
node [shape=box, fontname="helvetica"] ;
edge [fontname="helvetica"] ;
0 [label="stem_percent <= 22.5\nentropy = 0.809\nsamples = 382\nvalue = [287, 95]"] ;
1 [label="total_cost <= 215636.0\nentropy = 0.482\nsamples = 288\nvalue = [258, 30]"] ;
0 -> 1 [labeldistance=2.5, labelangle=45, headlabel="True"] ;
2 [label="rank <= 13.5\nentropy = 0.186\nsamples = 247\nvalue = [240, 7]"] ;
1 -> 2 ;
3 [label="diversity_percent <= 0.158\nentropy = 0.296\nsamples = 134\nvalue = [127, 7]"] ;
2 -> 3 ;
4 [label="entropy = 0.0\nsamples = 52\nvalue = [52, 0]"] ;
3 -> 4 ;
5 [label="total_cost <= 76440.0\nentropy = 0.421\nsamples = 82\nvalue = [75, 7]"] ;
3 -> 5 ;
6 [label="entropy = 0.0\nsamples = 27\nvalue = [27, 0]"] ;
5 -> 6 ;
7 [label="total_cost <= 99608.0\nentropy = 0.55\nsamples = 55\nvalue = [48, 7]"] ;
5 -> 7 ;
8 [label="total_cost <= 91542.0\nentropy = 0.937\nsamples = 17\nvalue = [11, 6]"] ;
7 -> 8 ;
9 [label="rank <= 6.0\nentropy = 0.75\nsamples = 14\nvalue = [11, 3]"] ;
8 -> 9 ;
10 [label="entropy = 0.0\nsamples = 6\nvalue = [6, 0]"] ;
9 -> 10 ;
11 [label="entropy = 0.954\nsamples = 8\nvalue = [5, 3]"] ;
9 -> 11 ;
12 [label="entropy = 0.0\nsamples = 3\nvalue = [0, 3]"] ;
8 -> 12 ;
13 [label="diversity_percent <= 0.16\nentropy = 0.176\nsamples = 38\nvalue = [37, 1]"] ;
7 -> 13 ;
14 [label="entropy = 0.0\nsamples = 1\nvalue = [0, 1]"] ;
13 -> 14 ;
15 [label="entropy = 0.0\nsamples = 37\nvalue = [37, 0]"] ;
13 -> 15 ;
16 [label="entropy = 0.0\nsamples = 113\nvalue = [113, 0]"] ;
2 -> 16 ;
17 [label="total_cost <= 255568.0\nentropy = 0.989\nsamples = 41\nvalue = [18, 23]"] ;
1 -> 17 ;
18 [label="diversity_percent <= 0.282\nentropy = 0.989\nsamples = 32\nvalue = [18, 14]"] ;
17 -> 18 ;
19 [label="stem_percent <= 10.5\nentropy = 0.904\nsamples = 25\nvalue = [17, 8]"] ;
18 -> 19 ;
20 [label="entropy = 0.0\nsamples = 7\nvalue = [7, 0]"] ;
19 -> 20 ;
21 [label="stem_percent <= 17.5\nentropy = 0.991\nsamples = 18\nvalue = [10, 8]"] ;
19 -> 21 ;
22 [label="diversity_percent <= 0.139\nentropy = 0.946\nsamples = 11\nvalue = [4, 7]"] ;
21 -> 22 ;
23 [label="entropy = 0.0\nsamples = 5\nvalue = [0, 5]"] ;
22 -> 23 ;
24 [label="stem_percent <= 12.5\nentropy = 0.918\nsamples = 6\nvalue = [4, 2]"] ;
22 -> 24 ;
25 [label="entropy = 0.0\nsamples = 3\nvalue = [3, 0]"] ;
24 -> 25 ;
26 [label="entropy = 0.918\nsamples = 3\nvalue = [1, 2]"] ;
24 -> 26 ;
27 [label="total_cost <= 233872.0\nentropy = 0.592\nsamples = 7\nvalue = [6, 1]"] ;
21 -> 27 ;
28 [label="entropy = 0.0\nsamples = 6\nvalue = [6, 0]"] ;
27 -> 28 ;
29 [label="entropy = 0.0\nsamples = 1\nvalue = [0, 1]"] ;
27 -> 29 ;
30 [label="rank <= 7.0\nentropy = 0.592\nsamples = 7\nvalue = [1, 6]"] ;
18 -> 30 ;
31 [label="entropy = 0.0\nsamples = 4\nvalue = [0, 4]"] ;
30 -> 31 ;
32 [label="stem_percent <= 7.5\nentropy = 0.918\nsamples = 3\nvalue = [1, 2]"] ;
30 -> 32 ;
33 [label="entropy = 0.0\nsamples = 1\nvalue = [0, 1]"] ;
32 -> 33 ;
34 [label="stem_percent <= 11.5\nentropy = 1.0\nsamples = 2\nvalue = [1, 1]"] ;
32 -> 34 ;
35 [label="entropy = 0.0\nsamples = 1\nvalue = [1, 0]"] ;
34 -> 35 ;
36 [label="entropy = 0.0\nsamples = 1\nvalue = [0, 1]"] ;
34 -> 36 ;
37 [label="entropy = 0.0\nsamples = 9\nvalue = [0, 9]"] ;
17 -> 37 ;
38 [label="stem_percent <= 33.5\nentropy = 0.891\nsamples = 94\nvalue = [29, 65]"] ;
0 -> 38 [labeldistance=2.5, labelangle=-45, headlabel="False"] ;
39 [label="total_cost <= 237294.0\nentropy = 0.995\nsamples = 59\nvalue = [27, 32]"] ;
38 -> 39 ;
40 [label="total_cost <= 113714.0\nentropy = 0.954\nsamples = 40\nvalue = [25, 15]"] ;
39 -> 40 ;
41 [label="diversity_percent <= 0.12\nentropy = 0.918\nsamples = 21\nvalue = [7, 14]"] ;
40 -> 41 ;
42 [label="entropy = 0.0\nsamples = 4\nvalue = [4, 0]"] ;
41 -> 42 ;
43 [label="rank <= 5.5\nentropy = 0.672\nsamples = 17\nvalue = [3, 14]"] ;
41 -> 43 ;
44 [label="entropy = 0.0\nsamples = 10\nvalue = [0, 10]"] ;
43 -> 44 ;
45 [label="diversity_percent <= 0.53\nentropy = 0.985\nsamples = 7\nvalue = [3, 4]"] ;
43 -> 45 ;
46 [label="entropy = 0.0\nsamples = 3\nvalue = [3, 0]"] ;
45 -> 46 ;
47 [label="entropy = 0.0\nsamples = 4\nvalue = [0, 4]"] ;
45 -> 47 ;
48 [label="diversity_percent <= 0.317\nentropy = 0.297\nsamples = 19\nvalue = [18, 1]"] ;
40 -> 48 ;
49 [label="entropy = 0.0\nsamples = 15\nvalue = [15, 0]"] ;
48 -> 49 ;
50 [label="diversity_percent <= 0.379\nentropy = 0.811\nsamples = 4\nvalue = [3, 1]"] ;
48 -> 50 ;
51 [label="entropy = 0.0\nsamples = 1\nvalue = [0, 1]"] ;
50 -> 51 ;
52 [label="entropy = 0.0\nsamples = 3\nvalue = [3, 0]"] ;
50 -> 52 ;
53 [label="rank <= 22.5\nentropy = 0.485\nsamples = 19\nvalue = [2, 17]"] ;
39 -> 53 ;
54 [label="stem_percent <= 24.0\nentropy = 0.31\nsamples = 18\nvalue = [1, 17]"] ;
53 -> 54 ;
55 [label="rank <= 4.0\nentropy = 0.918\nsamples = 3\nvalue = [1, 2]"] ;
54 -> 55 ;
56 [label="entropy = 0.0\nsamples = 2\nvalue = [0, 2]"] ;
55 -> 56 ;
57 [label="entropy = 0.0\nsamples = 1\nvalue = [1, 0]"] ;
55 -> 57 ;
58 [label="entropy = 0.0\nsamples = 15\nvalue = [0, 15]"] ;
54 -> 58 ;
59 [label="entropy = 0.0\nsamples = 1\nvalue = [1, 0]"] ;
53 -> 59 ;
60 [label="total_cost <= 64858.0\nentropy = 0.316\nsamples = 35\nvalue = [2, 33]"] ;
38 -> 60 ;
61 [label="entropy = 0.0\nsamples = 2\nvalue = [2, 0]"] ;
60 -> 61 ;
62 [label="entropy = 0.0\nsamples = 33\nvalue = [0, 33]"] ;
60 -> 62 ;
}