digraph Tree {
node [shape=box, fontname="helvetica"] ;
edge [fontname="helvetica"] ;
0 [label="total_cost <= 237194.0\nentropy = 0.813\nsamples = 382\nvalue = [286, 96]"] ;
1 [label="stem_percent <= 19.5\nentropy = 0.635\nsamples = 331\nvalue = [278, 53]"] ;
0 -> 1 [labeldistance=2.5, labelangle=45, headlabel="True"] ;
2 [label="total_cost <= 215636.0\nentropy = 0.334\nsamples = 243\nvalue = [228, 15]"] ;
1 -> 2 ;
3 [label="rank <= 5.5\nentropy = 0.131\nsamples = 220\nvalue = [216, 4]"] ;
2 -> 3 ;
4 [label="diversity_percent <= 0.198\nentropy = 0.459\nsamples = 31\nvalue = [28, 3]"] ;
3 -> 4 ;
5 [label="entropy = 0.0\nsamples = 17\nvalue = [17, 0]"] ;
4 -> 5 ;
6 [label="diversity_percent <= 0.374\nentropy = 0.75\nsamples = 14\nvalue = [11, 3]"] ;
4 -> 6 ;
7 [label="diversity_percent <= 0.233\nentropy = 0.985\nsamples = 7\nvalue = [4, 3]"] ;
6 -> 7 ;
8 [label="diversity_percent <= 0.212\nentropy = 0.722\nsamples = 5\nvalue = [4, 1]"] ;
7 -> 8 ;
9 [label="entropy = 0.0\nsamples = 1\nvalue = [0, 1]"] ;
8 -> 9 ;
10 [label="entropy = 0.0\nsamples = 4\nvalue = [4, 0]"] ;
8 -> 10 ;
11 [label="entropy = 0.0\nsamples = 2\nvalue = [0, 2]"] ;
7 -> 11 ;
12 [label="entropy = 0.0\nsamples = 7\nvalue = [7, 0]"] ;
6 -> 12 ;
13 [label="diversity_percent <= 0.428\nentropy = 0.048\nsamples = 189\nvalue = [188, 1]"] ;
3 -> 13 ;
14 [label="entropy = 0.0\nsamples = 163\nvalue = [163, 0]"] ;
13 -> 14 ;
15 [label="diversity_percent <= 0.451\nentropy = 0.235\nsamples = 26\nvalue = [25, 1]"] ;
13 -> 15 ;
16 [label="entropy = 0.0\nsamples = 1\nvalue = [0, 1]"] ;
15 -> 16 ;
17 [label="entropy = 0.0\nsamples = 25\nvalue = [25, 0]"] ;
15 -> 17 ;
18 [label="stem_percent <= 7.5\nentropy = 0.999\nsamples = 23\nvalue = [12, 11]"] ;
2 -> 18 ;
19 [label="entropy = 0.0\nsamples = 4\nvalue = [4, 0]"] ;
18 -> 19 ;
20 [label="stem_percent <= 17.0\nentropy = 0.982\nsamples = 19\nvalue = [8, 11]"] ;
18 -> 20 ;
21 [label="diversity_percent <= 0.112\nentropy = 0.937\nsamples = 17\nvalue = [6, 11]"] ;
20 -> 21 ;
22 [label="entropy = 0.0\nsamples = 5\nvalue = [0, 5]"] ;
21 -> 22 ;
23 [label="diversity_percent <= 0.26\nentropy = 1.0\nsamples = 12\nvalue = [6, 6]"] ;
21 -> 23 ;
24 [label="entropy = 0.0\nsamples = 4\nvalue = [4, 0]"] ;
23 -> 24 ;
25 [label="stem_percent <= 8.5\nentropy = 0.811\nsamples = 8\nvalue = [2, 6]"] ;
23 -> 25 ;
26 [label="entropy = 1.0\nsamples = 4\nvalue = [2, 2]"] ;
25 -> 26 ;
27 [label="entropy = 0.0\nsamples = 4\nvalue = [0, 4]"] ;
25 -> 27 ;
28 [label="entropy = 0.0\nsamples = 2\nvalue = [2, 0]"] ;
20 -> 28 ;
29 [label="stem_percent <= 33.5\nentropy = 0.987\nsamples = 88\nvalue = [50, 38]"] ;
1 -> 29 ;
30 [label="total_cost <= 113076.0\nentropy = 0.892\nsamples = 68\nvalue = [47, 21]"] ;
29 -> 30 ;
31 [label="diversity_percent <= 0.17\nentropy = 1.0\nsamples = 34\nvalue = [17, 17]"] ;
30 -> 31 ;
32 [label="stem_percent <= 29.5\nentropy = 0.503\nsamples = 9\nvalue = [8, 1]"] ;
31 -> 32 ;
33 [label="entropy = 0.0\nsamples = 8\nvalue = [8, 0]"] ;
32 -> 33 ;
34 [label="entropy = 0.0\nsamples = 1\nvalue = [0, 1]"] ;
32 -> 34 ;
35 [label="rank <= 4.5\nentropy = 0.943\nsamples = 25\nvalue = [9, 16]"] ;
31 -> 35 ;
36 [label="entropy = 0.0\nsamples = 10\nvalue = [0, 10]"] ;
35 -> 36 ;
37 [label="total_cost <= 80408.0\nentropy = 0.971\nsamples = 15\nvalue = [9, 6]"] ;
35 -> 37 ;
38 [label="entropy = 0.0\nsamples = 9\nvalue = [9, 0]"] ;
37 -> 38 ;
39 [label="entropy = 0.0\nsamples = 6\nvalue = [0, 6]"] ;
37 -> 39 ;
40 [label="diversity_percent <= 0.095\nentropy = 0.523\nsamples = 34\nvalue = [30, 4]"] ;
30 -> 40 ;
41 [label="entropy = 0.0\nsamples = 1\nvalue = [0, 1]"] ;
40 -> 41 ;
42 [label="diversity_percent <= 0.302\nentropy = 0.439\nsamples = 33\nvalue = [30, 3]"] ;
40 -> 42 ;
43 [label="rank <= 3.5\nentropy = 0.222\nsamples = 28\nvalue = [27, 1]"] ;
42 -> 43 ;
44 [label="rank <= 2.5\nentropy = 0.544\nsamples = 8\nvalue = [7, 1]"] ;
43 -> 44 ;
45 [label="entropy = 0.0\nsamples = 6\nvalue = [6, 0]"] ;
44 -> 45 ;
46 [label="entropy = 1.0\nsamples = 2\nvalue = [1, 1]"] ;
44 -> 46 ;
47 [label="entropy = 0.0\nsamples = 20\nvalue = [20, 0]"] ;
43 -> 47 ;
48 [label="diversity_percent <= 0.379\nentropy = 0.971\nsamples = 5\nvalue = [3, 2]"] ;
42 -> 48 ;
49 [label="entropy = 0.0\nsamples = 2\nvalue = [0, 2]"] ;
48 -> 49 ;
50 [label="entropy = 0.0\nsamples = 3\nvalue = [3, 0]"] ;
48 -> 50 ;
51 [label="total_cost <= 64858.0\nentropy = 0.61\nsamples = 20\nvalue = [3, 17]"] ;
29 -> 51 ;
52 [label="entropy = 0.0\nsamples = 2\nvalue = [2, 0]"] ;
51 -> 52 ;
53 [label="rank <= 7.5\nentropy = 0.31\nsamples = 18\nvalue = [1, 17]"] ;
51 -> 53 ;
54 [label="entropy = 0.0\nsamples = 17\nvalue = [0, 17]"] ;
53 -> 54 ;
55 [label="entropy = 0.0\nsamples = 1\nvalue = [1, 0]"] ;
53 -> 55 ;
56 [label="stem_percent <= 12.5\nentropy = 0.627\nsamples = 51\nvalue = [8, 43]"] ;
0 -> 56 [labeldistance=2.5, labelangle=-45, headlabel="False"] ;
57 [label="diversity_percent <= 0.291\nentropy = 0.954\nsamples = 8\nvalue = [5, 3]"] ;
56 -> 57 ;
58 [label="rank <= 6.0\nentropy = 0.65\nsamples = 6\nvalue = [5, 1]"] ;
57 -> 58 ;
59 [label="entropy = 0.0\nsamples = 1\nvalue = [0, 1]"] ;
58 -> 59 ;
60 [label="entropy = 0.0\nsamples = 5\nvalue = [5, 0]"] ;
58 -> 60 ;
61 [label="entropy = 0.0\nsamples = 2\nvalue = [0, 2]"] ;
57 -> 61 ;
62 [label="rank <= 22.5\nentropy = 0.365\nsamples = 43\nvalue = [3, 40]"] ;
56 -> 62 ;
63 [label="diversity_percent <= 0.247\nentropy = 0.276\nsamples = 42\nvalue = [2, 40]"] ;
62 -> 63 ;
64 [label="diversity_percent <= 0.244\nentropy = 0.544\nsamples = 16\nvalue = [2, 14]"] ;
63 -> 64 ;
65 [label="entropy = 0.0\nsamples = 14\nvalue = [0, 14]"] ;
64 -> 65 ;
66 [label="entropy = 0.0\nsamples = 2\nvalue = [2, 0]"] ;
64 -> 66 ;
67 [label="entropy = 0.0\nsamples = 26\nvalue = [0, 26]"] ;
63 -> 67 ;
68 [label="entropy = 0.0\nsamples = 1\nvalue = [1, 0]"] ;
62 -> 68 ;
}